digraph Tree {
node [shape=box, style="filled, rounded", color="black", fontname="helvetica"] ;
edge [fontname="helvetica"] ;
0 [label="status_account <= 2.5\ngini = 0.5\nsamples = 800\nvalue = [400.0, 400.0]\nclass = y[1]", fillcolor="#ffffff"] ;
1 [label="other_debtors <= 1.5\ngini = 0.469\nsamples = 487\nvalue = [204.569, 339.394]\nclass = y[1]", fillcolor="#b0d8f5"] ;
0 -> 1 [labeldistance=2.5, labelangle=45, headlabel="True"] ;
2 [label="gini = 0.458\nsamples = 453\nvalue = [183.48, 332.468]\nclass = y[1]", fillcolor="#a6d3f3"] ;
1 -> 2 ;
3 [label="gini = 0.372\nsamples = 34\nvalue = [21.09, 6.926]\nclass = y[0]", fillcolor="#eeaa7a"] ;
1 -> 3 ;
4 [label="inst_plans <= 0.5\ngini = 0.361\nsamples = 313\nvalue = [195.431, 60.606]\nclass = y[0]", fillcolor="#eda876"] ;
0 -> 4 [labeldistance=2.5, labelangle=-45, headlabel="False"] ;
5 [label="gini = 0.5\nsamples = 40\nvalue = [19.684, 20.779]\nclass = y[1]", fillcolor="#f5fafe"] ;
4 -> 5 ;
6 [label="gini = 0.301\nsamples = 273\nvalue = [175.747, 39.827]\nclass = y[0]", fillcolor="#eb9e66"] ;
4 -> 6 ;
}